<?xml version="1.0"?>
<opencv_storage>
<stage2>
  <maxWeakCount>10</maxWeakCount>
  <stageThreshold>-1.1251059770584106e+00</stageThreshold>
  <weakClassifiers>
    <_>
      <internalNodes>
        0 -1 850680 3.9349660277366638e-02</internalNodes>
      <leafValues>
        -4.8086607456207275e-01 7.8877007961273193e-01</leafValues></_>
    <_>
      <internalNodes>
        0 -1 1495592 4.5551862567663193e-03</internalNodes>
      <leafValues>
        -2.9213735461235046e-01 7.0613074302673340e-01</leafValues></_>
    <_>
      <internalNodes>
        0 -1 1982456 -4.3148957192897797e-03</internalNodes>
      <leafValues>
        5.6322771310806274e-01 -2.8028264641761780e-01</leafValues></_>
    <_>
      <internalNodes>
        0 -1 1805441 -2.7474283706396818e-04</internalNodes>
      <leafValues>
        -7.4121797084808350e-01 2.0719471573829651e-01</leafValues></_>
    <_>
      <internalNodes>
        0 -1 1612895 -5.9320935979485512e-03</internalNodes>
      <leafValues>
        3.8326516747474670e-01 -3.2310512661933899e-01</leafValues></_>
    <_>
      <internalNodes>
        0 -1 1249007 -4.8627769574522972e-03</internalNodes>
      <leafValues>
        6.8131065368652344e-01 -2.0942217111587524e-01</leafValues></_>
    <_>
      <internalNodes>
        0 -1 1789570 -8.3003677427768707e-03</internalNodes>
      <leafValues>
        6.3201808929443359e-01 -1.2841419875621796e-01</leafValues></_>
    <_>
      <internalNodes>
        0 -1 2060751 4.1470332071185112e-03</internalNodes>
      <leafValues>
        -2.0929391682147980e-01 5.2795374393463135e-01</leafValues></_>
    <_>
      <internalNodes>
        0 -1 1809963 -9.3237969849724323e-05</internalNodes>
      <leafValues>
        -6.8760806322097778e-01 1.4450868964195251e-01</leafValues></_>
    <_>
      <internalNodes>
        0 -1 2245560 1.5519997105002403e-03</internalNodes>
      <leafValues>
        -2.0197832584381104e-01 5.8357304334640503e-01</leafValues></_></weakClassifiers></stage2>
</opencv_storage>
