<?xml version="1.0"?>
<opencv_storage>
<stage15>
  <maxWeakCount>30</maxWeakCount>
  <stageThreshold>-1.2789790630340576e+00</stageThreshold>
  <weakClassifiers>
    <_>
      <internalNodes>
        0 -1 1739617 -4.1585341095924377e-03</internalNodes>
      <leafValues>
        3.4134007990360260e-02 -4.3785852193832397e-01</leafValues></_>
    <_>
      <internalNodes>
        0 -1 1282 -2.8198026120662689e-03</internalNodes>
      <leafValues>
        -4.5146140456199646e-01 8.2652404904365540e-02</leafValues></_>
    <_>
      <internalNodes>
        0 -1 1736804 2.0654704712796956e-04</internalNodes>
      <leafValues>
        6.9899849593639374e-02 -5.9334540367126465e-01</leafValues></_>
    <_>
      <internalNodes>
        0 -1 1610805 6.0850748013763223e-06</internalNodes>
      <leafValues>
        -1.8746049702167511e-01 2.9395660758018494e-01</leafValues></_>
    <_>
      <internalNodes>
        0 -1 2195949 1.2601194903254509e-03</internalNodes>
      <leafValues>
        -1.0990107059478760e-01 3.9844095706939697e-01</leafValues></_>
    <_>
      <internalNodes>
        0 -1 1688251 3.5447371192276478e-04</internalNodes>
      <leafValues>
        -1.8658842146396637e-01 2.4827863276004791e-01</leafValues></_>
    <_>
      <internalNodes>
        0 -1 1277187 2.2084157913923264e-02</internalNodes>
      <leafValues>
        7.4209235608577728e-02 -5.5132305622100830e-01</leafValues></_>
    <_>
      <internalNodes>
        0 -1 1866955 -5.5485390475951135e-05</internalNodes>
      <leafValues>
        -6.4205199480056763e-01 7.5466401875019073e-02</leafValues></_>
    <_>
      <internalNodes>
        0 -1 1794991 -5.6654989020898938e-04</internalNodes>
      <leafValues>
        3.6201727390289307e-01 -1.3145577907562256e-01</leafValues></_>
    <_>
      <internalNodes>
        0 -1 1852515 7.4643539846874774e-05</internalNodes>
      <leafValues>
        -2.4381195008754730e-01 2.1892033517360687e-01</leafValues></_>
    <_>
      <internalNodes>
        0 -1 76035 -1.3130530714988708e-02</internalNodes>
      <leafValues>
        -5.2224141359329224e-01 9.7452826797962189e-02</leafValues></_>
    <_>
      <internalNodes>
        0 -1 1374620 3.6904610693454742e-02</internalNodes>
      <leafValues>
        4.5182976871728897e-02 -8.3358150720596313e-01</leafValues></_>
    <_>
      <internalNodes>
        0 -1 2148217 1.0210284963250160e-03</internalNodes>
      <leafValues>
        -1.0763608664274216e-01 4.6092304587364197e-01</leafValues></_>
    <_>
      <internalNodes>
        0 -1 1907760 -2.5545916287228465e-04</internalNodes>
      <leafValues>
        -6.1063539981842041e-01 7.3778413236141205e-02</leafValues></_>
    <_>
      <internalNodes>
        0 -1 1793755 -2.1960525773465633e-03</internalNodes>
      <leafValues>
        3.8444602489471436e-01 -1.3359981775283813e-01</leafValues></_>
    <_>
      <internalNodes>
        0 -1 1852597 2.1225179079920053e-04</internalNodes>
      <leafValues>
        -2.1115206182003021e-01 2.7016678452491760e-01</leafValues></_>
    <_>
      <internalNodes>
        0 -1 1913414 4.8281923227477819e-05</internalNodes>
      <leafValues>
        1.2883493304252625e-01 -3.6585587263107300e-01</leafValues></_>
    <_>
      <internalNodes>
        0 -1 1799779 -2.8588897548615932e-03</internalNodes>
      <leafValues>
        2.0909678936004639e-01 -2.3246634006500244e-01</leafValues></_>
    <_>
      <internalNodes>
        0 -1 1603699 -1.0044456273317337e-01</internalNodes>
      <leafValues>
        -6.2153673171997070e-01 7.9593203961849213e-02</leafValues></_>
    <_>
      <internalNodes>
        0 -1 2074229 1.1655864364001900e-04</internalNodes>
      <leafValues>
        -1.8563659489154816e-01 2.6200187206268311e-01</leafValues></_>
    <_>
      <internalNodes>
        0 -1 2267413 9.2768659815192223e-03</internalNodes>
      <leafValues>
        8.1650592386722565e-02 -6.1182463169097900e-01</leafValues></_>
    <_>
      <internalNodes>
        0 -1 1959895 3.0693400185555220e-04</internalNodes>
      <leafValues>
        -1.7485310137271881e-01 2.8365653753280640e-01</leafValues></_>
    <_>
      <internalNodes>
        0 -1 2014038 -7.3957716813310981e-04</internalNodes>
      <leafValues>
        -8.8655620813369751e-01 4.4756926596164703e-02</leafValues></_>
    <_>
      <internalNodes>
        0 -1 1584118 1.4061205089092255e-02</internalNodes>
      <leafValues>
        -1.0241908580064774e-01 4.8337846994400024e-01</leafValues></_>
    <_>
      <internalNodes>
        0 -1 1458923 -7.0072943344712257e-03</internalNodes>
      <leafValues>
        2.8534838557243347e-01 -1.9765445590019226e-01</leafValues></_>
    <_>
      <internalNodes>
        0 -1 2277143 -3.4926191437989473e-04</internalNodes>
      <leafValues>
        2.5252464413642883e-01 -1.7942225933074951e-01</leafValues></_>
    <_>
      <internalNodes>
        0 -1 1747898 -2.8830033261328936e-04</internalNodes>
      <leafValues>
        -5.9937381744384766e-01 6.9765612483024597e-02</leafValues></_>
    <_>
      <internalNodes>
        0 -1 871097 1.6995843499898911e-02</internalNodes>
      <leafValues>
        -1.3825161755084991e-01 3.5086771845817566e-01</leafValues></_>
    <_>
      <internalNodes>
        0 -1 1267717 8.1451900769025087e-04</internalNodes>
      <leafValues>
        -1.7388813197612762e-01 3.3389374613761902e-01</leafValues></_>
    <_>
      <internalNodes>
        0 -1 1690603 -1.3631109322886914e-04</internalNodes>
      <leafValues>
        2.5371560454368591e-01 -1.7787013947963715e-01</leafValues></_></weakClassifiers></stage15>
</opencv_storage>
