<?xml version="1.0"?>
<opencv_storage>
<stage1>
  <maxWeakCount>9</maxWeakCount>
  <stageThreshold>-1.1501386165618896e+00</stageThreshold>
  <weakClassifiers>
    <_>
      <internalNodes>
        0 -1 915779 1.0858087241649628e-01</internalNodes>
      <leafValues>
        -5.1449275016784668e-01 7.8037381172180176e-01</leafValues></_>
    <_>
      <internalNodes>
        0 -1 88985 -2.1353062987327576e-01</internalNodes>
      <leafValues>
        8.4427982568740845e-01 -2.7289068698883057e-01</leafValues></_>
    <_>
      <internalNodes>
        0 -1 1913601 1.5415407251566648e-03</internalNodes>
      <leafValues>
        2.6441204547882080e-01 -7.5727617740631104e-01</leafValues></_>
    <_>
      <internalNodes>
        0 -1 1919552 -1.0879255569307134e-04</internalNodes>
      <leafValues>
        -6.7082959413528442e-01 1.9505916535854340e-01</leafValues></_>
    <_>
      <internalNodes>
        0 -1 1792349 1.6679465770721436e-02</internalNodes>
      <leafValues>
        -2.3357306420803070e-01 6.1169546842575073e-01</leafValues></_>
    <_>
      <internalNodes>
        0 -1 1921956 -7.9336416092701256e-05</internalNodes>
      <leafValues>
        -7.0031076669692993e-01 2.0536215603351593e-01</leafValues></_>
    <_>
      <internalNodes>
        0 -1 1867652 1.1628351057879627e-04</internalNodes>
      <leafValues>
        1.6743621230125427e-01 -7.0335096120834351e-01</leafValues></_>
    <_>
      <internalNodes>
        0 -1 2058325 -1.2553564738482237e-03</internalNodes>
      <leafValues>
        4.1867154836654663e-01 -2.9761719703674316e-01</leafValues></_>
    <_>
      <internalNodes>
        0 -1 1741823 2.0521890837699175e-03</internalNodes>
      <leafValues>
        -3.8195446133613586e-01 3.5785377025604248e-01</leafValues></_></weakClassifiers></stage1>
</opencv_storage>
